digraph Tree {
node [shape=box, style="filled, rounded", color="black", fontname=helvetica] ;
edge [fontname=helvetica] ;
0 [label="Number_of_employees_in_org <= 1.37\nentropy = 1.3\nsamples = 204\nvalue = [92, 33, 187]\nclass = 2", fillcolor="#c9aaf4"] ;
1 [label="if_it_interferes <= 1.04\nentropy = 1.34\nsamples = 127\nvalue = [72, 18, 99]\nclass = 2", fillcolor="#e2d1f9"] ;
0 -> 1 [labeldistance=2.5, labelangle=45, headlabel="True"] ;
2 [label="emphasis_on_physical_health <= 1.27\nentropy = 1.09\nsamples = 52\nvalue = [57, 16, 6]\nclass = 0", fillcolor="#eead7e"] ;
1 -> 2 ;
3 [label="mental_health_allowance <= 1.54\nentropy = 0.44\nsamples = 15\nvalue = [20, 0, 2]\nclass = 0", fillcolor="#e88e4d"] ;
2 -> 3 ;
4 [label="entropy = 0.29\nsamples = 13\nvalue = [19, 0, 1]\nclass = 0", fillcolor="#e68843"] ;
3 -> 4 ;
5 [label="entropy = 1.0\nsamples = 2\nvalue = [1, 0, 1]\nclass = 0", fillcolor="#ffffff"] ;
3 -> 5 ;
6 [label="prev_mental_disorder <= 1.44\nentropy = 1.19\nsamples = 37\nvalue = [37, 16, 4]\nclass = 0", fillcolor="#f2be9a"] ;
2 -> 6 ;
7 [label="entropy = 0.9\nsamples = 30\nvalue = [32, 15, 0]\nclass = 0", fillcolor="#f1bc96"] ;
6 -> 7 ;
8 [label="entropy = 1.36\nsamples = 7\nvalue = [5, 1, 4]\nclass = 0", fillcolor="#fbeade"] ;
6 -> 8 ;
9 [label="mental_health_allowance <= 1.39\nentropy = 0.7\nsamples = 75\nvalue = [15, 2, 93]\nclass = 2", fillcolor="#985cea"] ;
1 -> 9 ;
10 [label="Number_of_employees_in_org <= 1.19\nentropy = 1.33\nsamples = 13\nvalue = [5, 2, 10]\nclass = 2", fillcolor="#caacf4"] ;
9 -> 10 ;
11 [label="entropy = 0.59\nsamples = 5\nvalue = [1, 0, 6]\nclass = 2", fillcolor="#965ae9"] ;
10 -> 11 ;
12 [label="entropy = 1.52\nsamples = 8\nvalue = [4, 2, 4]\nclass = 0", fillcolor="#ffffff"] ;
10 -> 12 ;
13 [label="family_history_of_mental_health <= 1.53\nentropy = 0.49\nsamples = 62\nvalue = [10, 0, 83]\nclass = 2", fillcolor="#9051e8"] ;
9 -> 13 ;
14 [label="entropy = 0.71\nsamples = 32\nvalue = [10, 0, 41]\nclass = 2", fillcolor="#a069eb"] ;
13 -> 14 ;
15 [label="entropy = 0.0\nsamples = 30\nvalue = [0, 0, 42]\nclass = 2", fillcolor="#8139e5"] ;
13 -> 15 ;
16 [label="mental_health_allowance <= 1.39\nentropy = 1.14\nsamples = 77\nvalue = [20, 15, 88]\nclass = 2", fillcolor="#ac7cee"] ;
0 -> 16 [labeldistance=2.5, labelangle=-45, headlabel="False"] ;
17 [label="Sought_Treatment <= 1.25\nentropy = 1.33\nsamples = 31\nvalue = [14, 5, 26]\nclass = 2", fillcolor="#ceb2f5"] ;
16 -> 17 ;
18 [label="employer_in_interview <= 1.34\nentropy = 1.48\nsamples = 17\nvalue = [13, 5, 8]\nclass = 0", fillcolor="#f8dcc8"] ;
17 -> 18 ;
19 [label="entropy = 0.99\nsamples = 5\nvalue = [5, 4, 0]\nclass = 0", fillcolor="#fae6d7"] ;
18 -> 19 ;
20 [label="entropy = 1.26\nsamples = 12\nvalue = [8, 1, 8]\nclass = 0", fillcolor="#ffffff"] ;
18 -> 20 ;
21 [label="Number_of_employees_in_org <= 1.65\nentropy = 0.3\nsamples = 14\nvalue = [1, 0, 18]\nclass = 2", fillcolor="#8844e6"] ;
17 -> 21 ;
22 [label="entropy = 0.0\nsamples = 11\nvalue = [0, 0, 14]\nclass = 2", fillcolor="#8139e5"] ;
21 -> 22 ;
23 [label="entropy = 0.72\nsamples = 3\nvalue = [1, 0, 4]\nclass = 2", fillcolor="#a06aec"] ;
21 -> 23 ;
24 [label="are_you_willing_to_share_with_friends <= 1.32\nentropy = 0.93\nsamples = 46\nvalue = [6, 10, 62]\nclass = 2", fillcolor="#9f68eb"] ;
16 -> 24 ;
25 [label="comfortable_direct_sup_previous <= 1.47\nentropy = 1.52\nsamples = 9\nvalue = [4, 8, 5]\nclass = 1", fillcolor="#cef8e0"] ;
24 -> 25 ;
26 [label="entropy = 1.24\nsamples = 7\nvalue = [4, 8, 1]\nclass = 1", fillcolor="#a7f3c7"] ;
25 -> 26 ;
27 [label="entropy = 0.0\nsamples = 2\nvalue = [0, 0, 4]\nclass = 2", fillcolor="#8139e5"] ;
25 -> 27 ;
28 [label="interferes_with_work <= 0.88\nentropy = 0.41\nsamples = 37\nvalue = [2, 2, 57]\nclass = 2", fillcolor="#8a46e7"] ;
24 -> 28 ;
29 [label="entropy = 1.0\nsamples = 3\nvalue = [2, 2, 0]\nclass = 0", fillcolor="#ffffff"] ;
28 -> 29 ;
30 [label="entropy = 0.0\nsamples = 34\nvalue = [0, 0, 57]\nclass = 2", fillcolor="#8139e5"] ;
28 -> 30 ;
}